digraph Tree {
node [shape=box, style="filled, rounded", color="black", fontname="helvetica"] ;
edge [fontname="helvetica"] ;
0 [label="Location Description <= 55.5\ngini = 0.5\nsamples = 2218\nvalue = [1137, 1081]\nclass = 1", fillcolor="#fef9f5"] ;
1 [label="Location Description <= 39.5\ngini = 0.458\nsamples = 790\nvalue = [281, 509]\nclass = 0", fillcolor="#a6d3f3"] ;
0 -> 1 [labeldistance=2.5, labelangle=45, headlabel="True"] ;
2 [label="Location Description <= 16.5\ngini = 0.487\nsamples = 603\nvalue = [253, 350]\nclass = 0", fillcolor="#c8e4f8"] ;
1 -> 2 ;
3 [label="Location Description <= 1.5\ngini = 0.465\nsamples = 481\nvalue = [177, 304]\nclass = 0", fillcolor="#acd6f4"] ;
2 -> 3 ;
4 [label="Beat <= 249.0\ngini = 0.483\nsamples = 120\nvalue = [71, 49]\nclass = 1", fillcolor="#f7d8c2"] ;
3 -> 4 ;
5 [label="gini = 0.475\nsamples = 116\nvalue = [71, 45]\nclass = 1", fillcolor="#f5d1b6"] ;
4 -> 5 ;
6 [label="gini = 0.0\nsamples = 4\nvalue = [0, 4]\nclass = 0", fillcolor="#399de5"] ;
4 -> 6 ;
7 [label="Location Description <= 3.5\ngini = 0.415\nsamples = 361\nvalue = [106, 255]\nclass = 0", fillcolor="#8bc6f0"] ;
3 -> 7 ;
8 [label="gini = 0.456\nsamples = 259\nvalue = [91, 168]\nclass = 0", fillcolor="#a4d2f3"] ;
7 -> 8 ;
9 [label="gini = 0.251\nsamples = 102\nvalue = [15, 87]\nclass = 0", fillcolor="#5baee9"] ;
7 -> 9 ;
10 [label="Ward <= 32.0\ngini = 0.47\nsamples = 122\nvalue = [76, 46]\nclass = 1", fillcolor="#f5cdb1"] ;
2 -> 10 ;
11 [label="AVER_AGE <= 15.0\ngini = 0.431\nsamples = 105\nvalue = [72, 33]\nclass = 1", fillcolor="#f1bb94"] ;
10 -> 11 ;
12 [label="gini = 0.0\nsamples = 13\nvalue = [13, 0]\nclass = 1", fillcolor="#e58139"] ;
11 -> 12 ;
13 [label="gini = 0.46\nsamples = 92\nvalue = [59, 33]\nclass = 1", fillcolor="#f4c7a8"] ;
11 -> 13 ;
14 [label="NUM_OF_ARREST <= 1.5\ngini = 0.36\nsamples = 17\nvalue = [4, 13]\nclass = 0", fillcolor="#76bbed"] ;
10 -> 14 ;
15 [label="gini = 0.48\nsamples = 10\nvalue = [4, 6]\nclass = 0", fillcolor="#bddef6"] ;
14 -> 15 ;
16 [label="gini = 0.0\nsamples = 7\nvalue = [0, 7]\nclass = 0", fillcolor="#399de5"] ;
14 -> 16 ;
17 [label="Location Description <= 51.5\ngini = 0.255\nsamples = 187\nvalue = [28, 159]\nclass = 0", fillcolor="#5caeea"] ;
1 -> 17 ;
18 [label="Beat <= 4.0\ngini = 0.032\nsamples = 122\nvalue = [2, 120]\nclass = 0", fillcolor="#3c9fe5"] ;
17 -> 18 ;
19 [label="gini = 0.0\nsamples = 1\nvalue = [1, 0]\nclass = 1", fillcolor="#e58139"] ;
18 -> 19 ;
20 [label="Community Area <= 3.5\ngini = 0.016\nsamples = 121\nvalue = [1, 120]\nclass = 0", fillcolor="#3b9ee5"] ;
18 -> 20 ;
21 [label="gini = 0.444\nsamples = 3\nvalue = [1, 2]\nclass = 0", fillcolor="#9ccef2"] ;
20 -> 21 ;
22 [label="gini = 0.0\nsamples = 118\nvalue = [0, 118]\nclass = 0", fillcolor="#399de5"] ;
20 -> 22 ;
23 [label="Location Description <= 54.5\ngini = 0.48\nsamples = 65\nvalue = [26, 39]\nclass = 0", fillcolor="#bddef6"] ;
17 -> 23 ;
24 [label="Location Description <= 53.5\ngini = 0.382\nsamples = 35\nvalue = [26, 9]\nclass = 1", fillcolor="#eead7e"] ;
23 -> 24 ;
25 [label="gini = 0.0\nsamples = 17\nvalue = [17, 0]\nclass = 1", fillcolor="#e58139"] ;
24 -> 25 ;
26 [label="gini = 0.5\nsamples = 18\nvalue = [9, 9]\nclass = 1", fillcolor="#ffffff"] ;
24 -> 26 ;
27 [label="gini = 0.0\nsamples = 30\nvalue = [0, 30]\nclass = 0", fillcolor="#399de5"] ;
23 -> 27 ;
28 [label="Location Description <= 71.5\ngini = 0.48\nsamples = 1428\nvalue = [856, 572]\nclass = 1", fillcolor="#f6d5bd"] ;
0 -> 28 [labeldistance=2.5, labelangle=-45, headlabel="False"] ;
29 [label="Location Description <= 59.5\ngini = 0.187\nsamples = 507\nvalue = [454, 53]\nclass = 1", fillcolor="#e89050"] ;
28 -> 29 ;
30 [label="Location Description <= 57.5\ngini = 0.499\nsamples = 65\nvalue = [34, 31]\nclass = 1", fillcolor="#fdf4ee"] ;
29 -> 30 ;
31 [label="gini = 0.0\nsamples = 34\nvalue = [34, 0]\nclass = 1", fillcolor="#e58139"] ;
30 -> 31 ;
32 [label="gini = 0.0\nsamples = 31\nvalue = [0, 31]\nclass = 0", fillcolor="#399de5"] ;
30 -> 32 ;
33 [label="Location Description <= 68.5\ngini = 0.095\nsamples = 442\nvalue = [420, 22]\nclass = 1", fillcolor="#e68843"] ;
29 -> 33 ;
34 [label="Location Description <= 66.5\ngini = 0.251\nsamples = 143\nvalue = [122, 21]\nclass = 1", fillcolor="#e9975b"] ;
33 -> 34 ;
35 [label="gini = 0.076\nsamples = 127\nvalue = [122, 5]\nclass = 1", fillcolor="#e68641"] ;
34 -> 35 ;
36 [label="gini = 0.0\nsamples = 16\nvalue = [0, 16]\nclass = 0", fillcolor="#399de5"] ;
34 -> 36 ;
37 [label="AVER_AGE <= 65.0\ngini = 0.007\nsamples = 299\nvalue = [298, 1]\nclass = 1", fillcolor="#e5813a"] ;
33 -> 37 ;
38 [label="gini = 0.0\nsamples = 297\nvalue = [297, 0]\nclass = 1", fillcolor="#e58139"] ;
37 -> 38 ;
39 [label="gini = 0.5\nsamples = 2\nvalue = [1, 1]\nclass = 1", fillcolor="#ffffff"] ;
37 -> 39 ;
40 [label="Location Description <= 84.5\ngini = 0.492\nsamples = 921\nvalue = [402, 519]\nclass = 0", fillcolor="#d2e9f9"] ;
28 -> 40 ;
41 [label="Location Description <= 77.5\ngini = 0.494\nsamples = 906\nvalue = [402, 504]\nclass = 0", fillcolor="#d7ebfa"] ;
40 -> 41 ;
42 [label="AVER_AGE <= 45.0\ngini = 0.489\nsamples = 872\nvalue = [370, 502]\nclass = 0", fillcolor="#cbe5f8"] ;
41 -> 42 ;
43 [label="gini = 0.491\nsamples = 818\nvalue = [355, 463]\nclass = 0", fillcolor="#d1e8f9"] ;
42 -> 43 ;
44 [label="gini = 0.401\nsamples = 54\nvalue = [15, 39]\nclass = 0", fillcolor="#85c3ef"] ;
42 -> 44 ;
45 [label="Location Description <= 82.5\ngini = 0.111\nsamples = 34\nvalue = [32, 2]\nclass = 1", fillcolor="#e78945"] ;
41 -> 45 ;
46 [label="gini = 0.0\nsamples = 31\nvalue = [31, 0]\nclass = 1", fillcolor="#e58139"] ;
45 -> 46 ;
47 [label="gini = 0.444\nsamples = 3\nvalue = [1, 2]\nclass = 0", fillcolor="#9ccef2"] ;
45 -> 47 ;
48 [label="gini = 0.0\nsamples = 15\nvalue = [0, 15]\nclass = 0", fillcolor="#399de5"] ;
40 -> 48 ;
}